tree
version=v3
num_class=1
num_tree_per_iteration=1
label_index=0
max_feature_idx=7
objective=regression
feature_names=model year transmission mileage fuelType tax mpg engineSize
feature_infos=[0:23] [1996:2020] [0:2] [1:214000] [0:4] [0:580] [5.5:470.80000000000001] [0:6.5999999999999996]
tree_sizes=2734 2756 2754 2747 2762 2755 2753 2753 2742 2749 2754 2745 2747 2770 2757 2767 2771 2743 2764 2746

Tree=0
num_leaves=31
num_cat=0
split_feature=1 7 0 7 1 0 0 1 0 1 0 0 1 6 0 6 1 6 1 1 6 1 1 1 0 1 1 1 0 1
split_gain=3.27185e+11 1.61112e+11 4.03447e+10 3.94667e+10 1.78299e+10 1.60999e+10 1.51385e+10 1.04818e+10 1.03053e+10 7.43438e+09 5.43294e+09 5.31594e+09 5.20539e+09 5.10206e+09 4.84007e+09 4.28939e+09 1.98921e+09 1.93996e+09 1.91375e+09 1.79854e+09 1.73103e+09 1.57942e+09 1.50157e+09 1.48086e+09 1.42516e+09 1.34737e+09 1.30453e+09 1.26906e+09 1.60829e+09 1.223e+09
threshold=2018.5000000000002 2.6500000000000004 5.5000000000000009 2.6500000000000004 2016.5000000000002 1.5000000000000002 5.5000000000000009 2015.5000000000002 17.500000000000004 2014.5000000000002 14.500000000000002 2.5000000000000004 2015.5000000000002 26.800000000000001 12.500000000000002 33.800000000000004 2019.5000000000002 36.45000000000001 2013.5000000000002 2017.5000000000002 32.650000000000006 2011.5000000000002 2019.5000000000002 2019.5000000000002 13.500000000000002 2012.5000000000002 2016.5000000000002 2016.5000000000002 3.5000000000000004 2017.5000000000002
decision_type=2 2 2 2 2 2 2 2 2 2 2 2 2 2 2 2 2 2 2 2 2 2 2 2 2 2 2 2 2 2
left_child=3 5 22 4 9 17 12 18 13 21 16 29 25 -4 -11 -9 -7 -2 -8 -13 -10 -1 -3 -19 -21 -5 -17 -14 -29 -6
right_child=1 2 8 6 11 10 7 15 20 14 -12 19 27 -15 -16 26 -18 23 -20 24 -22 -23 -24 -25 -26 -27 -28 28 -30 -31
leaf_value=21937.108560350323 23189.427805125953 23268.801738580198 24793.370777234504 22032.048441984214 22397.999675523599 23026.849947298488 22363.089466225942 23849.715566007653 25147.401617690342 22305.00464814654 23373.817924250587 22610.280402081058 22602.281813686823 24075.282481725342 22553.840687876553 23026.445031210569 23207.415365952555 22729.267336660309 22821.407282423501 22737.551423937522 24615.041895716266 22169.421703492328 23606.609594668626 22953.221175488412 23109.577705985499 22449.858685476582 23327.173819045845 22725.232448086866 23033.467933172695 22550.461338907298
leaf_weight=87 28 140 27 22 388 869 34 30 26 998 157 295 143 295 243 65 185 487 69 106 37 460 43 87 34 157 81 210 53 199
leaf_count=87 28 140 27 22 388 869 34 30 26 998 157 295 143 295 243 65 185 487 69 106 37 460 43 87 34 157 81 210 53 199
internal_value=22769.7 23224.6 23959.4 22472.1 22381.3 22994.4 22767.7 23070.7 24249.9 22286 23099.4 22547.9 22623.1 24135.5 22353.7 23305.2 23058.5 22783 22670.1 22680.3 24834.7 22132.5 23348.2 22763.2 22827.9 22398.5 23193.3 22722.2 22787.3 22449.7
internal_weight=0 2381 568 3674 2810 1813 864 279 385 1788 1211 1022 585 322 1241 176 1054 602 103 435 63 547 183 574 140 179 146 406 263 587
internal_count=6055 2381 568 3674 2810 1813 864 279 385 1788 1211 1022 585 322 1241 176 1054 602 103 435 63 547 183 574 140 179 146 406 263 587
shrinkage=1


Tree=1
num_leaves=31
num_cat=0
split_feature=1 7 7 6 3 1 6 7 6 1 4 6 1 6 4 6 3 7 3 7 1 1 6 6 1 5 6 6 6 6
split_gain=2.95285e+11 1.45403e+11 3.56187e+10 2.57333e+10 1.65122e+10 1.10137e+10 1.06879e+10 9.98521e+09 6.80404e+09 6.28117e+09 3.80832e+09 5.66307e+09 3.58061e+09 3.36124e+09 3.13855e+09 5.45371e+09 2.30719e+09 2.28449e+09 2.24622e+09 1.64448e+09 1.4944e+09 1.41131e+09 1.39936e+09 1.27125e+09 1.19239e+09 8.87982e+08 8.83708e+08 8.35119e+08 3.10456e+09 8.30207e+08
threshold=2018.5000000000002 2.6500000000000004 2.6500000000000004 37.95000000000001 44787.500000000007 2015.5000000000002 35.100000000000001 1.9500000000000002 33.800000000000004 2016.5000000000002 3.5000000000000004 26.800000000000001 2013.5000000000002 44.45000000000001 3.5000000000000004 47.500000000000007 5002.0000000000009 1.9500000000000002 69645.000000000015 1.9500000000000002 2017.5000000000002 2017.5000000000002 123.75000000000001 34.45000000000001 2015.5000000000002 127.50000000000001 63.500000000000007 49.150000000000013 40.100000000000001 34.70000000000001
decision_type=2 2 2 2 2 2 2 2 2 2 2 2 2 2 2 2 2 2 2 2 2 2 2 2 2 2 2 2 2 2
left_child=2 7 4 8 9 18 -7 -2 10 19 -3 -12 -6 23 15 -5 -15 22 29 -1 27 -19 -11 -9 -21 -14 -18 28 -8 -4
right_child=1 3 5 14 12 6 20 13 -10 17 11 -13 25 16 -16 -17 26 21 -20 24 -22 -23 -24 -25 -26 -27 -28 -29 -30 -31
leaf_value=-488.16672137030241 -35.785313592239717 2087.2039613381412 91.93472254943849 1175.7560178786059 -689.360992921704 679.42148252614345 -97.139462999075903 621.36009358723959 1213.5935021602747 -376.50865572167459 1976.6758593750001 1220.5329447115384 -508.49584986760067 293.04484187602264 342.51008466932512 603.65917926656789 187.85465466133991 -198.85822229342611 -508.72782022812794 -417.15822761877263 247.56651490701211 -51.93519101475561 44.832221013849434 365.27310906024206 -282.66702585487724 -377.7240530377868 34.697071960883413 -66.138525329733113 280.40736373265588 -214.66311238606772
leaf_weight=232 329 39 25 65 274 75 121 60 198 189 40 65 520 647 45 116 402 446 68 268 74 258 22 252 428 173 123 213 99 189
leaf_count=232 329 39 25 65 274 75 121 60 198 189 40 65 520 647 45 116 402 446 68 268 74 258 22 252 428 173 123 213 99 189
internal_value=0 432.129 -282.694 1130.2 -369.02 -1.93399 122.329 213.427 1403.78 -281.225 1665.3 1508.59 -536.349 268.676 716.202 809.108 229.851 -188.267 -258.392 -372.882 39.9189 -145.014 -332.577 414.521 -334.454 -475.85 151.972 4.43175 72.7566 -178.846
internal_weight=0 2381 3674 568 2810 864 582 1813 342 1843 144 105 967 1484 226 181 1172 915 282 928 507 704 211 312 696 693 525 433 220 214
internal_count=6055 2381 3674 568 2810 864 582 1813 342 1843 144 105 967 1484 226 181 1172 915 282 928 507 704 211 312 696 693 525 433 220 214
shrinkage=0.05


Tree=2
num_leaves=31
num_cat=0
split_feature=1 7 0 7 3 0 0 3 0 0 0 1 6 3 1 1 1 0 1 3 6 1 0 6 1 1 0 1 6 1
split_gain=2.66495e+11 1.31226e+11 3.35587e+10 3.21458e+10 1.49023e+10 1.37688e+10 1.28646e+10 8.69809e+09 8.63443e+09 8.26393e+09 4.74446e+09 4.29228e+09 4.09405e+09 3.86472e+09 3.2315e+09 2.81566e+09 2.65462e+09 1.80949e+09 1.72118e+09 1.70466e+09 1.63557e+09 1.51416e+09 1.42592e+09 1.42483e+09 1.32012e+09 1.26583e+09 1.22134e+09 1.04827e+09 1.10808e+09 9.90253e+08
threshold=2018.5000000000002 2.6500000000000004 5.5000000000000009 2.6500000000000004 44787.500000000007 1.5000000000000002 5.5000000000000009 40848.000000000007 17.500000000000004 2.5000000000000004 14.500000000000002 2016.5000000000002 26.800000000000001 10318.000000000002 2013.5000000000002 2017.5000000000002 2016.5000000000002 15.500000000000002 2019.5000000000002 67456.500000000015 36.45000000000001 2013.5000000000002 3.5000000000000004 32.650000000000006 2019.5000000000002 2019.5000000000002 13.500000000000002 2015.5000000000002 39.500000000000007 2014.5000000000002
decision_type=2 2 2 2 2 2 2 2 2 2 2 2 2 2 2 2 2 2 2 2 2 2 2 2 2 2 2 2 2 2
left_child=3 5 25 4 9 20 11 13 12 16 18 19 -4 -8 -6 29 -1 -16 -7 -5 -2 -9 -13 -10 -22 -3 -17 -15 -29 -11
right_child=1 2 8 6 14 10 7 21 23 15 -12 22 -14 27 17 26 -18 -19 -20 -21 24 -23 -24 -25 -26 -27 -28 28 -30 -31
leaf_value=-429.35829220218261 380.47388218470985 443.36826799937654 1823.2401475694446 -208.73952280274244 -654.89293373274984 232.22894990718544 1083.5146423339845 -362.30780954071975 2157.6407076322116 -398.57785180664064 556.33185389816379 -43.70547089349656 1179.9874897378179 130.15650293744844 -468.32525150425084 -20.421166703307513 -273.18669991134908 -50.787882260923034 400.18969155620886 -529.02529247050381 -42.927430503618062 46.696494409773088 246.52797182101122 1674.6547389674831 168.52306584325331 753.52750442859747 325.19208554099589 692.84165566934132 364.43871034440542 -166.42643123002179
leaf_weight=572 28 140 27 273 274 869 24 33 26 50 157 210 295 29 666 103 519 27 185 49 487 72 53 37 87 43 34 37 84 565
leaf_count=572 28 140 27 273 274 869 24 33 26 50 157 210 295 29 666 103 519 27 185 49 487 72 53 37 87 43 34 37 84 565
internal_value=0 410.522 1073.69 -268.559 -350.569 202.755 -1.83729 277.537 1338.66 -267.164 299.906 -135.077 1233.92 494.407 -509.531 -139.637 -355.066 -452.058 261.71 -257.479 7.32411 -81.8477 14.7826 1873.98 -10.8783 516.247 65.3515 400.15 464.859 -185.301
internal_weight=0 2381 568 3674 2810 1813 864 279 385 1843 1211 585 322 174 967 752 1091 693 1054 322 602 105 263 63 574 183 137 150 121 615
internal_count=6055 2381 568 3674 2810 1813 864 279 385 1843 1211 585 322 174 967 752 1091 693 1054 322 602 105 263 63 574 183 137 150 121 615
shrinkage=0.05


Tree=3
num_leaves=31
num_cat=0
split_feature=1 7 7 6 1 1 6 7 5 6 4 6 6 1 4 6 3 1 7 3 6 1 4 3 7 6 6 1 4 3
split_gain=2.40511e+11 1.18432e+11 2.90116e+10 2.1047e+10 1.34863e+10 9.11611e+09 8.80707e+09 8.3717e+09 7.16754e+09 5.69789e+09 3.29014e+09 4.54469e+09 2.79287e+09 2.67367e+09 2.66656e+09 4.55355e+09 2.0179e+09 1.98468e+09 1.47424e+09 1.35946e+09 1.32353e+09 1.2545e+09 1.21903e+09 9.07993e+08 8.06885e+08 8.01283e+08 7.90082e+08 7.84389e+08 7.40892e+08 9.06285e+08
threshold=2018.5000000000002 2.6500000000000004 2.6500000000000004 37.95000000000001 2015.5000000000002 2015.5000000000002 35.100000000000001 1.9500000000000002 127.50000000000001 33.800000000000004 3.5000000000000004 26.800000000000001 44.45000000000001 2013.5000000000002 3.5000000000000004 47.500000000000007 5213.0000000000009 2012.5000000000002 1.9500000000000002 17975.000000000004 35.100000000000001 2017.5000000000002 3.5000000000000004 53319.500000000007 1.9500000000000002 54.850000000000001 63.500000000000007 2010.5000000000002 3.5000000000000004 1943.5000000000002
decision_type=2 2 2 2 2 2 2 2 2 2 2 2 2 2 2 2 2 2 2 2 2 2 2 2 2 2 2 2 2 2
left_child=2 7 4 9 13 17 -7 -2 18 10 -3 -12 22 27 15 -5 -14 -4 -6 -10 -19 -8 -9 -20 -21 -17 -18 -1 29 -11
right_child=1 3 5 14 8 6 21 12 19 28 11 -13 16 -15 -16 25 26 20 23 24 -22 -23 -24 -25 -26 -27 -28 -29 -30 -31
leaf_value=-762.89766748821921 -35.572740242836325 1898.8947591145834 -531.67001953124998 1066.2595244891827 -447.62429153654313 617.01266457112638 3.9845343486266103 630.2421934546494 -78.741690739365524 1395.5259016927084 1780.410075683594 1103.0335539362982 265.3014091102516 -426.85505895522039 301.14843924628366 479.92950153756647 166.78182904726373 213.30569496154786 -278.91129765520191 -349.26377879817312 -211.93724408083187 226.75110124124063 337.70756459253744 -419.33582979329435 -180.32590702250602 815.13921980424357 18.277272730860215 -566.10538637619618 929.1758176317403 1087.4856562166133
leaf_weight=63 329 39 47 65 288 75 433 41 344 30 40 65 663 618 45 94 393 20 495 82 215 74 271 150 512 22 116 258 51 117
leaf_count=63 329 39 47 65 288 75 433 41 344 30 40 65 663 618 45 94 393 20 495 82 215 74 271 150 512 22 116 258 51 117
internal_value=0 389.996 -255.131 1020.01 -333.041 -1.74543 111.307 192.617 -255.441 1267.43 1506.74 1361.08 243.207 -487.662 645.597 731.234 207.816 -235.067 -353.566 -157.84 -175.746 36.4988 376.15 -311.568 -203.647 543.504 132.938 -604.728 1093.38 1150.35
internal_weight=0 2381 3674 568 2810 864 582 1813 1871 342 144 105 1484 939 226 181 1172 282 933 938 235 507 312 645 594 116 509 321 198 147
internal_count=6055 2381 3674 568 2810 864 582 1813 1871 342 144 105 1484 939 226 181 1172 282 933 938 235 507 312 645 594 116 509 321 198 147
shrinkage=0.05


Tree=4
num_leaves=31
num_cat=0
split_feature=1 7 0 7 3 0 0 0 3 0 0 1 3 1 1 1 1 1 3 0 1 0 1 1 0 1 0 0 1 5
split_gain=2.17061e+11 1.06885e+11 2.78393e+10 2.6183e+10 1.24829e+10 1.17797e+10 1.13233e+10 7.6311e+09 7.30758e+09 7.20687e+09 4.14874e+09 3.5535e+09 3.32401e+09 2.54024e+09 2.40454e+09 2.02525e+09 1.49396e+09 1.46036e+09 1.30468e+09 1.2783e+09 1.26895e+09 1.33195e+09 1.23957e+09 1.23659e+09 1.12939e+09 1.0708e+09 8.91619e+08 8.86717e+08 8.79313e+08 8.56278e+08
threshold=2018.5000000000002 2.6500000000000004 5.5000000000000009 2.6500000000000004 49384.500000000007 1.5000000000000002 5.5000000000000009 2.5000000000000004 40848.000000000007 17.500000000000004 14.500000000000002 2016.5000000000002 10318.000000000002 2017.5000000000002 2016.5000000000002 2013.5000000000002 2019.5000000000002 2013.5000000000002 5454.0000000000009 3.5000000000000004 2014.5000000000002 14.500000000000002 2012.5000000000002 2019.5000000000002 13.500000000000002 2019.5000000000002 1.0000000180025095e-35 14.500000000000002 2015.5000000000002 142.50000000000003
decision_type=2 2 2 2 2 2 2 2 2 2 2 2 2 2 2 2 2 2 2 2 2 2 2 2 2 2 2 2 2 2
left_child=3 5 25 4 7 23 11 14 12 18 16 17 -8 20 -1 -6 29 -5 -4 -13 -9 -22 -10 -2 -15 -3 -16 -17 -14 -7
right_child=1 2 9 6 15 10 8 13 22 -11 -12 19 28 24 26 27 -18 -19 -20 -21 21 -23 -24 -25 -26 -27 -28 -29 -30 -31
leaf_value=-395.71845193386082 -28.797566486674654 394.25245003291542 1204.6128483436628 -538.15883890787768 -598.3030279227396 517.62486794211645 1005.5718953450522 -377.77466767723882 -384.56940917968751 1699.4125426277283 512.63368456409239 -45.685440075056896 124.53231274834997 -17.647405234745573 -336.42030101159611 -448.24860413906401 366.14429366240631 -200.25446187532867 1002.0518571760272 229.1150110640616 -184.76946912132311 2.3164837190660381 24.5521179575979 167.77171438367745 313.9152909671559 679.51926610192595 -202.80659792522002 -233.42888569382004 431.07830109793298 201.66334230317136
leaf_weight=640 507 140 179 36 253 22 24 67 24 63 157 210 29 105 198 513 185 286 143 53 491 118 81 95 34 43 338 53 121 847
leaf_count=640 507 140 179 36 253 22 24 67 24 63 157 210 29 105 198 513 185 286 143 53 491 118 81 95 34 43 338 53 121 847
internal_value=0 370.496 969.008 -242.375 -316.389 182.987 -1.65816 -248.799 260.447 1210.34 272.846 -126.662 459.228 -131.214 -330.289 -480.701 237.128 -238.033 1114.66 9.6926 -171.242 -148.52 -68.9614 2.2225 63.4543 461.282 -252.164 -428.133 371.813 209.662
internal_weight=0 2381 568 3674 2810 1813 864 1991 279 385 1211 585 174 815 1176 819 1054 322 322 263 676 609 105 602 139 183 536 566 150 869
internal_count=6055 2381 568 3674 2810 1813 864 1991 279 385 1211 585 174 815 1176 819 1054 322 322 263 676 609 105 602 139 183 536 566 150 869
shrinkage=0.05


Tree=5
num_leaves=31
num_cat=0
split_feature=3 7 0 7 0 3 0 6 5 0 0 3 3 0 4 6 3 0 3 3 5 0 3 0 6 6 2 6 3 3
split_gain=1.87878e+11 9.31597e+10 3.2182e+10 1.94863e+10 1.25558e+10 1.08111e+10 7.74099e+09 7.14521e+09 5.48872e+09 4.93122e+09 4.22114e+09 2.76334e+09 2.6449e+09 2.58251e+09 2.39211e+09 2.58906e+09 2.05232e+09 2.02519e+09 2.01464e+09 1.65142e+09 1.51714e+09 1.50491e+09 1.33537e+09 1.28586e+09 1.19134e+09 1.15015e+09 1.06249e+09 9.93673e+08 9.82706e+08 9.7548e+08
threshold=12187.000000000002 2.6500000000000004 5.5000000000000009 2.6500000000000004 1.5000000000000002 35830.000000000007 5.5000000000000009 33.800000000000004 152.50000000000003 14.500000000000002 1.5000000000000002 53319.500000000007 34126.500000000007 14.500000000000002 3.5000000000000004 26.800000000000001 5002.0000000000009 1.5000000000000002 2900.0000000000005 64342.500000000007 127.50000000000001 15.500000000000002 5454.0000000000009 1.0000000180025095e-35 48.300000000000004 41.20000000000001 1.5000000000000002 37.45000000000001 58479.000000000007 67456.500000000015
decision_type=2 2 2 2 2 2 2 2 2 2 2 2 2 2 2 2 2 2 2 2 2 2 2 2 2 2 2 2 2 2
left_child=1 4 17 5 16 10 12 14 25 18 26 -10 -5 19 -4 -16 27 -3 -6 23 -12 -17 -9 -7 -19 -8 -2 -1 -15 -14
right_child=3 2 7 6 9 13 8 22 11 -11 20 -13 29 28 15 21 -18 24 -20 -21 -22 -23 -24 -25 -26 -27 -28 -29 -30 -31
leaf_value=392.6437709263393 -362.1384908280661 75.640543050351354 1711.5865125868056 -38.96118429229373 300.59215121936558 -486.17694208295518 766.82908110747474 1078.9420645118657 197.89802017837275 514.90695558257448 -230.52392491020569 -207.77253280878068 -213.7964566203834 -62.701255835348107 1622.1415297564338 1299.3175167410716 -116.82371677791372 586.99837884670353 159.05917454899895 -515.29243965247497 -89.85956601190739 807.5235700334822 851.32734726562512 -348.12310153343503 323.53246526082359 366.99640672956195 -196.59590618426984 38.361581827873408 -336.66303559541706 -481.83057047526046
leaf_weight=21 381 46 45 315 393 241 37 133 122 151 292 64 177 67 34 35 306 82 698 387 558 28 125 562 90 35 130 344 64 42
leaf_count=21 381 46 45 315 393 241 37 133 122 151 292 64 177 67 34 35 306 82 698 387 558 28 125 562 90 35 130 344 64 42
internal_value=0 325.369 859.074 -241.006 152.954 -305.357 -23.0909 1125.44 201.797 247.107 -206.456 58.3125 -131.745 -407.252 1410.29 1270.51 -21.3206 370.327 210.042 -430.447 -138.182 1080.74 968.664 -389.556 449.138 572.466 -320.024 58.7449 -196.545 -265.2
internal_weight=0 2531 618 3474 1913 2682 792 400 258 1242 1361 186 534 1321 142 97 671 218 1091 1190 850 63 258 803 172 72 511 365 131 219
internal_count=6005 2531 618 3474 1913 2682 792 400 258 1242 1361 186 534 1321 142 97 671 218 1091 1190 850 63 258 803 172 72 511 365 131 219
shrinkage=0.05


Tree=6
num_leaves=31
num_cat=0
split_feature=1 7 7 0 3 0 0 3 0 0 1 0 1 1 6 0 6 6 1 2 6 3 0 0 1 1 1 0 0 0
split_gain=1.76358e+11 8.427e+10 2.05193e+10 2.05117e+10 1.03153e+10 9.68737e+09 8.76125e+09 6.21516e+09 5.38377e+09 4.29027e+09 3.69661e+09 3.56781e+09 3.26973e+09 3.25942e+09 2.82805e+09 2.61955e+09 1.68613e+09 1.62277e+09 1.52559e+09 1.52327e+09 1.47553e+09 1.34587e+09 1.16108e+09 1.09043e+09 1.08877e+09 9.81574e+08 9.54342e+08 9.18968e+08 2.23657e+09 1.06712e+09
threshold=2018.5000000000002 2.6500000000000004 2.6500000000000004 5.5000000000000009 35830.000000000007 1.5000000000000002 6.5000000000000009 13876.000000000002 17.500000000000004 2.5000000000000004 2015.5000000000002 14.500000000000002 2013.5000000000002 2014.5000000000002 26.800000000000001 14.500000000000002 32.650000000000006 36.45000000000001 2016.5000000000002 1.5000000000000002 45.20000000000001 2900.0000000000005 3.5000000000000004 1.5000000000000002 2019.5000000000002 2011.5000000000002 2019.5000000000002 7.5000000000000009 16.500000000000004 14.500000000000002
decision_type=2 2 2 2 2 2 2 2 2 2 2 2 2 2 2 2 2 2 2 2 2 2 2 2 2 2 2 2 2 2
left_child=2 5 4 26 9 17 10 -8 14 19 25 21 -6 -9 -5 23 -10 -2 -11 -1 -15 -7 -12 -14 -19 -4 -3 -16 29 -29
right_child=1 3 6 8 12 11 7 13 16 18 22 -13 15 20 27 -17 -18 24 -20 -21 -22 -23 -24 -25 -26 -27 -28 28 -30 -31
leaf_value=-308.1501910763252 350.82186813354497 351.48066252497318 -616.83565429687496 1544.85888671875 -540.30621533203123 292.947425972286 937.25549148033406 -191.51895105698532 1800.21393359375 -186.56312878324141 -69.362906811823606 484.99560245997475 -445.32831782386421 463.54958735148114 1142.7204440369899 -110.92583961891678 1283.8389069313228 -44.259227715600936 -24.655596289934529 -164.75364212431998 150.49506871912737 174.98964499795795 124.79829617565117 -332.95990081559745 146.8432286500931 -247.0800152587891 616.20514605978269 912.00215454101567 1036.7598887268928 596.86215540151125
leaf_weight=615 32 131 20 21 275 380 29 51 25 248 305 142 336 60 49 106 43 487 352 265 101 665 103 604 88 175 46 48 142 61
leaf_count=615 32 131 20 21 275 380 29 51 25 248 305 142 336 60 49 106 43 487 352 265 101 665 103 604 88 175 46 48 142 61
internal_value=0 334.573 -220.206 866.501 -285.326 166.751 -4.08917 250.73 1069.54 -194.675 -105.932 249.838 -386.889 156.818 983.925 -346.555 1473.68 4.2739 -91.5774 -264.968 267.161 217.883 -20.3467 -373.126 -15.0122 -285.004 420.279 944.66 905.994 735.639
internal_weight=0 2360 3645 566 2801 1794 844 241 389 1480 603 1187 1321 212 321 1046 68 607 600 880 161 1045 408 940 575 195 177 300 251 109
internal_count=6005 2360 3645 566 2801 1794 844 241 389 1480 603 1187 1321 212 321 1046 68 607 600 880 161 1045 408 940 575 195 177 300 251 109
shrinkage=0.05


Tree=7
num_leaves=31
num_cat=0
split_feature=1 6 3 0 6 0 6 0 0 6 1 0 0 1 6 4 5 2 1 0 3 0 3 2 6 0 4 0 6 1
split_gain=1.59163e+11 6.62028e+10 1.64211e+10 1.34257e+10 1.20895e+10 8.18208e+09 6.44167e+09 6.39566e+09 5.95619e+09 4.31144e+09 3.42803e+09 3.07179e+09 3.04614e+09 2.7499e+09 2.61861e+09 7.76632e+09 2.36003e+09 2.34221e+09 1.51857e+09 1.44505e+09 1.31076e+09 1.24645e+09 1.36484e+09 1.18693e+09 1.14192e+09 1.70258e+09 1.09709e+09 1.15346e+09 1.07561e+09 8.45323e+08
threshold=2018.5000000000002 37.95000000000001 34408.500000000007 1.5000000000000002 34.70000000000001 16.500000000000004 28.650000000000002 2.5000000000000004 15.500000000000002 36.45000000000001 2014.5000000000002 14.500000000000002 16.500000000000004 2012.5000000000002 45.20000000000001 1.0000000180025095e-35 127.50000000000001 1.5000000000000002 2016.5000000000002 20.500000000000004 2006.5000000000002 6.5000000000000009 14638.500000000002 1.0000000180025095e-35 34.45000000000001 13.500000000000002 3.5000000000000004 18.500000000000004 51.850000000000001 2011.5000000000002
decision_type=2 2 2 2 2 2 2 2 2 2 2 2 2 2 2 2 2 2 2 2 2 2 2 2 2 2 2 2 2 2
left_child=2 5 4 28 21 6 -2 17 10 26 29 14 18 -10 15 -5 -12 23 -9 -14 -16 -1 -23 -6 25 -8 27 -7 -3 -4
right_child=1 3 8 11 7 9 24 12 13 -11 16 -13 19 -15 20 -17 -18 -19 -20 -21 -22 22 -24 -25 -26 -27 -28 -29 -30 -31
leaf_value=176.64366752624514 1184.4325948512301 47.868820628574923 -585.91176234654029 926.04201185438365 -187.63476486343276 1262.1025695800781 833.78526088169644 -144.98913269569016 -523.16513671874998 888.54000849529984 -355.35538531310578 499.92104738084538 430.53243794160738 70.645176362991336 299.19215799967446 246.5273200803054 -202.6030842449151 -112.75002342269059 6.7517261385618896 -21.834700775146487 171.61305188598635 954.5085635230655 441.83236299402574 -321.66667963679356 409.48538835843408 418.15857876864351 1104.6496200561523 1701.5358782087053 -88.401694996636891 -422.93828814711696
leaf_weight=20 47 350 98 54 278 32 56 281 23 123 665 139 51 128 297 190 408 382 399 27 625 21 34 407 96 44 32 28 247 423
leaf_count=20 47 350 98 54 278 32 56 281 23 123 665 139 51 128 297 190 408 382 399 27 625 21 34 407 96 44 32 28 247 423
internal_value=0 317.844 -209.196 187.893 -107.49 857.51 658.724 -133.058 -319.935 1082.18 -348.366 277.742 -22.0058 -19.8028 251.256 396.912 -297.272 -211.951 -55.953 273.944 212.71 514.665 637.581 -267.271 532.661 650.91 1341.08 1467.17 -8.51111 -453.594
internal_weight=0 2360 3645 1902 1900 458 243 1825 1745 215 1594 1305 758 151 1166 244 1073 1067 680 78 922 75 55 685 196 100 92 60 597 521
internal_count=6005 2360 3645 1902 1900 458 243 1825 1745 215 1594 1305 758 151 1166 244 1073 1067 680 78 922 75 55 685 196 100 92 60 597 521
shrinkage=0.05


Tree=8
num_leaves=31
num_cat=0
split_feature=3 7 0 7 0 3 0 6 0 5 0 3 3 4 6 3 3 0 2 2 0 0 3 6 6 7 0 3 0 0
split_gain=1.39395e+11 6.97054e+10 2.33692e+10 1.49067e+10 9.1763e+09 7.84657e+09 5.71795e+09 5.4725e+09 4.29746e+09 4.23004e+09 3.67778e+09 2.1064e+09 2.06762e+09 1.85369e+09 1.9773e+09 1.69929e+09 1.5964e+09 1.56909e+09 1.51595e+09 1.63448e+09 1.4021e+09 1.37953e+09 1.15139e+09 9.25617e+08 7.99828e+08 7.92529e+08 7.68342e+08 7.99862e+08 7.55736e+08 1.12459e+09
threshold=12187.000000000002 2.6500000000000004 5.5000000000000009 2.6500000000000004 1.5000000000000002 43857.500000000007 5.5000000000000009 33.800000000000004 1.0000000180025095e-35 152.50000000000003 14.500000000000002 52509.000000000007 44275.000000000007 3.5000000000000004 26.800000000000001 5454.0000000000009 6001.0000000000009 1.5000000000000002 1.5000000000000002 1.0000000180025095e-35 15.500000000000002 2.5000000000000004 5454.0000000000009 48.300000000000004 41.20000000000001 1.9500000000000002 14.500000000000002 24077.000000000004 16.500000000000004 9.5000000000000018
decision_type=2 2 2 2 2 2 2 2 2 2 2 2 2 2 2 2 2 2 2 2 2 2 2 2 2 2 2 2 2 2
left_child=1 4 17 5 15 8 12 13 -2 24 16 -11 -5 -4 -15 25 -6 -3 19 26 -16 -7 28 -19 -8 -1 27 -10 29 -9
right_child=3 2 7 6 10 21 9 22 18 11 -12 -13 -14 14 20 -17 -18 23 -20 -21 -22 -23 -24 -25 -26 -27 -28 -29 -30 -31
leaf_value=-23.7271125537833 -331.0967870363375 66.054258645099139 1483.4293250868056 -53.142843945343103 223.29341412534941 -423.02125783611837 663.77761692356421 1095.7240091959636 -70.185528119862511 176.5839521687071 442.89427398277434 -173.91480044464569 -279.51459113226997 1402.4450137867648 1140.2897544642858 -113.33878858960759 95.86752730231872 516.33075695503055 -83.94652742819332 -288.79716689906166 665.59217180524558 -301.20489705943299 722.75393906250008 284.09890804714627 330.35139642987934 117.77030032660703 10.399434674752726 -220.79540938618766 1057.8631793975831 671.90499348958338
leaf_weight=194 451 46 45 399 717 606 37 24 139 119 151 67 135 34 35 275 374 82 503 291 28 377 125 90 35 202 74 241 64 45
leaf_count=194 451 46 45 399 717 606 37 24 139 119 151 67 135 34 35 275 374 82 503 291 28 377 125 90 35 202 74 241 64 45
internal_value=0 280.27 741.928 -207.584 131.13 -263.868 -16.9889 968.912 -198.816 176.292 211.621 50.329 -110.372 1218.2 1095.15 -17.8564 179.611 325.443 -151.012 -196.292 929.313 -376.302 831.708 394.814 501.695 48.4509 -137 -165.704 934.108 819.32
internal_weight=0 2531 618 3474 1913 2682 792 400 1699 258 1242 186 534 142 97 671 1091 218 1248 745 63 983 258 172 72 396 454 380 133 69
internal_count=6005 2531 618 3474 1913 2682 792 400 1699 258 1242 186 534 142 97 671 1091 218 1248 745 63 983 258 172 72 396 454 380 133 69
shrinkage=0.05


Tree=9
num_leaves=31
num_cat=0
split_feature=1 6 3 0 6 0 6 0 0 6 1 0 0 1 5 2 5 0 0 0 6 1 1 0 0 3 2 6 6 0
split_gain=1.30653e+11 5.42101e+10 1.34006e+10 1.09546e+10 1.00032e+10 6.62876e+09 5.32149e+09 5.30497e+09 4.98175e+09 3.54027e+09 2.99226e+09 2.55133e+09 2.52833e+09 2.41281e+09 1.94403e+09 1.92875e+09 1.82981e+09 1.84682e+09 5.49166e+09 2.2228e+09 1.49497e+09 1.37152e+09 1.29229e+09 1.21489e+09 1.00385e+09 1.10236e+09 9.7344e+08 9.37867e+08 9.19072e+08 1.32133e+09
threshold=2018.5000000000002 37.95000000000001 34408.500000000007 1.5000000000000002 34.70000000000001 16.500000000000004 28.650000000000002 2.5000000000000004 15.500000000000002 36.45000000000001 2014.5000000000002 3.5000000000000004 16.500000000000004 2012.5000000000002 127.50000000000001 1.5000000000000002 142.50000000000003 12.500000000000002 5.5000000000000009 14.500000000000002 53.800000000000004 2019.5000000000002 2016.5000000000002 20.500000000000004 6.5000000000000009 14638.500000000002 1.0000000180025095e-35 51.850000000000001 34.45000000000001 13.500000000000002
decision_type=2 2 2 2 2 2 2 2 2 2 2 2 2 2 2 2 2 2 2 2 2 2 2 2 2 2 2 2 2 2
left_child=2 5 4 27 24 6 -2 15 10 -7 -4 20 22 -10 -12 26 -13 18 -18 -19 21 -5 -9 -14 -1 -26 -6 -3 29 -8
right_child=1 3 8 11 7 9 28 12 13 -11 14 16 23 -15 -16 -17 17 19 -20 -21 -22 -23 -24 -25 25 -27 -28 -29 -30 -31
leaf_value=164.93297288894655 1075.2195286527592 45.622768122536797 -413.87983028243463 190.23203688015673 -170.84151889471701 1213.1517712136974 750.01207231794092 -132.83101076214339 -486.58264266304354 803.07882169397863 -320.54769100332624 743.3955126953125 393.4342396605249 69.6426885701716 -181.91035083193407 -102.74022674660408 311.13048831368417 137.57835661883846 965.05546875000005 395.239918415582 71.539450859790904 401.91928803126018 7.1488211762038691 -21.346832105848524 863.41425199962805 402.6650702981388 -292.22240002231456 -81.62359203500786 372.31777346134186 383.86465787020597
leaf_weight=20 47 350 521 377 278 92 56 281 23 123 665 25 51 128 408 382 207 223 38 134 205 96 399 27 21 34 407 247 96 44
leaf_count=20 47 350 521 377 278 92 56 281 23 123 665 25 51 128 408 382 207 223 38 134 205 96 399 27 21 34 407 247 96 44
internal_value=0 287.981 -189.528 170.388 -97.6519 776.326 597.401 -120.909 -289.566 978.552 -315.568 251.548 -19.7683 -15.0804 -267.832 -192.76 324.247 306.841 412.556 234.292 184.318 233.196 -50.6958 249.856 468.28 578.587 -242.961 -7.02355 482.823 588.907
internal_weight=0 2360 3645 1902 1900 458 243 1825 1745 215 1594 1305 758 151 1073 1067 627 602 245 357 678 473 680 78 75 55 685 597 196 100
internal_count=6005 2360 3645 1902 1900 458 243 1825 1745 215 1594 1305 758 151 1073 1067 627 602 245 357 678 473 680 78 75 55 685 597 196 100
shrinkage=0.05


Tree=10
num_leaves=31
num_cat=0
split_feature=1 7 7 0 1 0 1 0 0 0 0 0 3 3 1 0 3 1 0 1 0 3 3 0 0 3 0 4 1 4
split_gain=1.16026e+11 5.99734e+10 1.49703e+10 1.49013e+10 7.52573e+09 5.79117e+09 5.75168e+09 6.37197e+09 4.2029e+09 3.59111e+09 2.47097e+09 2.31629e+09 1.61703e+09 1.5519e+09 1.47378e+09 1.53427e+09 1.34242e+09 1.3346e+09 1.10874e+09 1.03088e+09 9.33787e+08 8.67062e+08 8.41074e+08 6.59236e+08 6.44105e+08 6.19698e+08 5.81876e+08 6.66219e+08 5.71742e+08 5.64077e+08
threshold=2018.5000000000002 2.6500000000000004 2.6500000000000004 5.5000000000000009 2015.5000000000002 1.5000000000000002 2015.5000000000002 5.5000000000000009 1.5000000000000002 17.500000000000004 14.500000000000002 13.500000000000002 31325.000000000004 16885.000000000004 2012.5000000000002 14.500000000000002 5002.0000000000009 2012.5000000000002 7.5000000000000009 2019.5000000000002 8.5000000000000018 30028.500000000004 2006.5000000000002 1.5000000000000002 3.5000000000000004 18289.000000000004 10.500000000000002 1.0000000180025095e-35 2016.5000000000002 3.5000000000000004
decision_type=2 2 2 2 2 2 2 2 2 2 2 2 2 2 2 2 2 2 2 2 2 2 2 2 2 2 2 2 2 2
left_child=2 5 4 23 14 19 17 24 21 16 22 12 -10 -9 -1 -16 18 -4 -5 -2 -19 -6 -7 -3 -8 -13 -20 -28 -26 -12
right_child=1 3 6 9 8 10 7 13 11 -11 29 25 -14 -15 15 -17 -18 20 26 -21 -22 -23 -24 -25 28 -27 27 -29 -30 -31
leaf_value=-498.30146623883934 -21.126250649620506 100.41625127377718 -416.69251213073733 1210.1570033482144 -224.96900201330382 236.30979144198341 -46.001403817223633 587.38092716298206 -89.744975072224946 1218.1275265066965 449.86284795964804 246.39194234212243 -214.81273774186946 254.72243621798532 -346.19495409000558 -114.63520170748234 719.62111148474355 -196.45601722236063 704.4554852294923 160.7149759868565 13.000703466391261 -339.8136470026347 138.5491157852301 386.25793774767624 -64.933646997912177 8.9258032599399826 823.6760048314145 1093.9543277138159 213.12153623244342 252.69991781030382
leaf_weight=140 510 23 48 28 392 318 326 47 600 70 103 36 454 138 676 80 159 163 40 92 79 283 714 164 29 116 57 38 51 56
leaf_count=140 510 23 48 28 392 318 326 47 600 70 103 36 454 138 676 80 159 163 40 92 79 283 714 164 29 116 57 38 51 56
internal_value=0 275.926 -173.054 718.354 -230.026 133.056 6.52866 96.0208 -173.217 893.549 196.942 -117.302 -143.617 339.236 -349.287 -321.691 822.988 -175.85 923.818 6.66344 -128.08 -273.119 168.673 351.101 -14.8038 65.1678 864.43 931.787 112.327 380.422
internal_weight=0 2372 3658 579 2777 1793 881 591 1881 392 1191 1206 1054 185 896 756 322 290 163 602 242 675 1032 187 406 152 135 95 80 159
internal_count=6030 2372 3658 579 2777 1793 881 591 1881 392 1191 1206 1054 185 896 756 322 290 163 602 242 675 1032 187 406 152 135 95 80 159
shrinkage=0.05


Tree=11
num_leaves=31
num_cat=0
split_feature=1 7 7 6 1 1 6 7 5 6 6 4 6 1 1 1 6 4 6 6 1 7 6 3 6 6 6 4 6 6
split_gain=1.04713e+11 5.4126e+10 1.35107e+10 9.95232e+09 6.79197e+09 5.19089e+09 4.218e+09 3.89556e+09 3.37168e+09 3.13e+09 2.01732e+09 1.4433e+09 3.82808e+09 1.33009e+09 1.23034e+09 1.20887e+09 1.1712e+09 1.05878e+09 1.89424e+09 1.0463e+09 8.41423e+08 8.02758e+08 7.68689e+08 7.60234e+08 6.91421e+08 6.57025e+08 6.17584e+08 6.94555e+08 5.75854e+08 8.34603e+08
threshold=2018.5000000000002 2.6500000000000004 2.6500000000000004 37.95000000000001 2015.5000000000002 2015.5000000000002 35.100000000000001 1.9500000000000002 127.50000000000001 26.800000000000001 60.750000000000007 3.5000000000000004 36.45000000000001 2012.5000000000002 2019.5000000000002 2011.5000000000002 84.350000000000009 3.5000000000000004 47.500000000000007 68.100000000000009 2016.5000000000002 1.9500000000000002 35.100000000000001 16276.000000000002 36.45000000000001 30.550000000000001 35.100000000000001 3.5000000000000004 47.500000000000007 40.100000000000001
decision_type=2 2 2 2 2 2 2 2 2 2 2 2 2 2 2 2 2 2 2 2 2 2 2 2 2 2 2 2 2 2
left_child=2 7 4 9 13 15 25 -2 16 -3 14 12 -11 -1 26 -4 19 18 -5 -6 28 -10 -17 -23 -16 -7 -9 -28 29 -8
right_child=1 3 5 17 8 6 20 10 21 11 -12 -13 -14 -15 24 22 -18 -19 -20 -21 -22 23 -24 -25 -26 -27 27 -29 -30 -31
leaf_value=-473.38640084402908 -32.626770314358012 1274.8599378083882 -442.60481026785715 701.44832763671877 -212.39504024102331 654.89178033447274 -105.05358828167583 312.50162165715147 -200.20039090412422 1212.9629134114582 44.338363970846139 666.57045208270733 729.54694616036829 -305.60671167222284 550.8350262185802 168.33606201171875 -42.635793603433143 211.66253787676493 355.7018519916366 -332.56794178413622 92.855688034876806 0.38450050803748048 -154.56273576614706 -108.72388275611853 262.77959219039298 338.78646988868718 188.1258102457175 96.284064200671764 -112.44932249219795 196.78283535704321
leaf_weight=140 317 38 35 61 577 25 43 65 164 60 298 130 129 756 23 20 74 48 113 264 312 220 235 582 221 48 534 335 114 49
leaf_count=140 317 38 35 61 577 25 43 65 164 60 298 130 129 756 23 20 74 48 113 264 312 220 235 582 221 48 534 335 114 49
internal_value=0 262.13 -164.401 682.436 -218.525 6.20223 91.2197 126.403 -164.556 845.905 160.558 794.807 883.012 -331.822 189.958 -167.058 -233.339 419.561 476.912 -250.119 41.0749 -99.4054 -129.237 -78.7939 289.932 447.042 163.84 152.721 -37.3503 55.7071
internal_weight=0 2372 3658 579 2777 881 591 1793 1881 357 1476 319 189 896 1178 290 915 222 174 841 518 966 255 802 244 73 934 869 206 92
internal_count=6030 2372 3658 579 2777 881 591 1793 1881 357 1476 319 189 896 1178 290 915 222 174 841 518 966 255 802 244 73 934 869 206 92
shrinkage=0.05


Tree=12
num_leaves=31
num_cat=0
split_feature=1 7 7 6 1 1 6 7 5 6 6 4 6 1 6 1 6 4 6 6 1 1 7 3 4 7 3 3 6 6
split_gain=9.45037e+10 4.88487e+10 1.21934e+10 8.98196e+09 6.12976e+09 4.68478e+09 3.80674e+09 3.51574e+09 3.04295e+09 2.82482e+09 1.82063e+09 1.30258e+09 3.45484e+09 1.2423e+09 1.11707e+09 1.10612e+09 1.05701e+09 9.55549e+08 1.70955e+09 9.44287e+08 8.16525e+08 7.59384e+08 7.24489e+08 7.2436e+08 6.26836e+08 5.9521e+08 5.68376e+08 5.45482e+08 5.19708e+08 7.53229e+08
threshold=2018.5000000000002 2.6500000000000004 2.6500000000000004 37.95000000000001 2015.5000000000002 2015.5000000000002 35.100000000000001 1.9500000000000002 127.50000000000001 26.800000000000001 60.750000000000007 3.5000000000000004 36.45000000000001 2013.5000000000002 35.100000000000001 2012.5000000000002 84.350000000000009 3.5000000000000004 47.500000000000007 68.100000000000009 2019.5000000000002 2016.5000000000002 1.9500000000000002 31008.000000000004 3.5000000000000004 4.2000000000000011 6552.5000000000009 5213.0000000000009 47.500000000000007 40.100000000000001
decision_type=2 2 2 2 2 2 2 2 2 2 2 2 2 2 2 2 2 2 2 2 2 2 2 2 2 2 2 2 2 2
left_child=2 7 4 9 13 15 25 26 16 -3 14 12 -11 -1 -9 -4 19 18 -5 -6 24 28 -10 -24 -16 -7 -2 -20 29 -8
right_child=1 3 5 17 8 6 21 10 22 11 -12 -13 -14 -15 20 -17 -18 -19 27 -21 -22 -23 23 -25 -26 -27 -28 -29 -30 -31
leaf_value=-398.21455691019696 8.5531651273686844 1211.1169228001645 -377.96456009546915 666.3758990178344 -201.77528846995256 321.65269338289897 -99.800909698841181 358.46654752405681 -190.19037183435952 1152.3147583007813 42.121445650742359 633.24192633995654 693.06960013929267 -273.46101316157609 178.71951841486529 -115.21510940041424 -40.504004715584422 201.07941127419474 434.04016125202179 -315.93954038042011 251.58166775808459 88.21290374933146 -43.431910009762298 -146.71339550643671 91.46986077095147 622.52053735351569 -144.3359224040334 212.3678268588319 -106.8268556092915 186.94369402515645
leaf_weight=300 235 38 48 61 577 48 43 82 164 60 298 130 129 596 534 242 74 48 64 264 227 312 558 244 335 25 82 49 114 49
leaf_count=300 235 38 48 61 577 48 43 82 164 60 298 130 129 596 534 242 74 48 64 264 227 312 558 244 335 25 82 49 114 49
internal_value=0 249.023 -156.181 648.314 -207.599 5.89212 86.6587 120.083 -156.329 803.61 152.53 755.067 838.862 -315.231 180.46 -158.705 -221.672 398.583 453.066 -237.613 167.142 39.0212 -94.4351 -74.8542 145.085 424.69 -30.9954 337.917 -35.4828 52.9218
internal_weight=0 2372 3658 579 2777 881 591 1793 1881 357 1476 319 189 896 1178 290 915 222 174 841 1096 518 966 802 869 73 317 113 206 92
internal_count=6030 2372 3658 579 2777 881 591 1793 1881 357 1476 319 189 896 1178 290 915 222 174 841 1096 518 966 802 869 73 317 113 206 92
shrinkage=0.05


Tree=13
num_leaves=31
num_cat=0
split_feature=1 7 0 0 3 7 0 3 6 6 6 0 3 7 3 6 0 6 2 1 6 3 5 2 0 0 1 0 1 1
split_gain=8.52895e+10 4.40859e+10 1.13191e+10 1.10119e+10 6.44769e+09 5.49545e+09 4.78105e+09 4.2607e+09 2.82063e+09 2.70493e+09 2.52895e+09 2.05906e+09 1.55063e+09 1.38038e+09 1.24244e+09 1.09162e+09 1.07713e+09 1.13264e+09 8.52046e+08 8.24437e+08 8.13467e+08 7.71975e+08 7.28227e+08 7.23937e+08 7.00199e+08 1.02733e+09 6.98929e+08 9.09892e+08 6.78531e+08 6.60803e+08
threshold=2018.5000000000002 2.6500000000000004 5.5000000000000009 2.5000000000000004 49384.500000000007 2.6500000000000004 1.5000000000000002 32507.000000000004 47.500000000000007 33.800000000000004 84.350000000000009 14.500000000000002 15765.000000000002 1.9500000000000002 75820.000000000015 36.45000000000001 17.500000000000004 26.800000000000001 1.5000000000000002 2016.5000000000002 32.650000000000006 9121.5000000000018 127.50000000000001 1.0000000180025095e-35 16.500000000000004 9.5000000000000018 2011.5000000000002 15.500000000000002 2019.5000000000002 2015.5000000000002
decision_type=2 2 2 2 2 2 2 2 2 2 2 2 2 2 2 2 2 2 2 2 2 2 2 2 2 2 2 2 2 2
left_child=3 6 -3 7 5 10 15 13 12 16 19 21 -7 -1 18 -2 17 -4 23 -5 -18 -8 -15 -9 25 -11 -6 -28 -17 -14
right_child=1 2 9 4 26 8 11 14 -10 24 -12 -13 29 22 -16 28 20 -19 -20 -21 -22 -23 -24 -25 -26 -27 27 -29 -30 -31
leaf_value=-240.04322731287917 288.20171961630547 295.81787400602656 1150.9851052989131 -136.85866385620909 -399.96577310147495 545.26319089143169 165.59310421184935 -226.82933353538681 15.074826020856349 788.83684828016499 317.88594512939454 339.6165930610033 50.982620534029877 -198.29688011252364 -421.03231876148897 -38.929333562049713 1314.66144567419 749.90106998697922 -174.99142938256264 -33.384166947146518 899.73692663283589 49.284480036350722 -82.109613581742394 -335.40853542751739 741.41723527428064 460.94016878369831 -229.15771146721147 -29.133680564769801 115.71139973100411 277.76018511988536
leaf_weight=311 31 187 23 385 46 46 861 233 171 36 41 159 44 184 170 488 27 75 176 385 21 171 505 450 139 71 323 69 83 119
leaf_count=311 31 187 23 385 46 46 861 233 171 36 41 159 44 184 170 488 27 75 176 385 21 171 505 450 139 71 323 69 83 119
internal_value=0 236.572 615.899 -148.372 -51.5532 8.77114 114.079 -226.104 165.675 768.59 -64.7474 172.126 288.894 -152.605 -297.531 -0.762816 939.079 844.033 -273.089 -85.1214 1133.13 146.321 -113.138 -298.368 667.406 571.261 -215.586 -193.949 -16.4509 216.544
internal_weight=0 2372 579 3658 1629 1191 1793 2029 380 392 811 1191 209 1000 1029 602 146 98 859 770 48 1032 689 683 246 107 438 392 571 163
internal_count=6030 2372 579 3658 1629 1191 1793 2029 380 392 811 1191 209 1000 1029 602 146 98 859 770 48 1032 689 683 246 107 438 392 571 163
shrinkage=0.05


Tree=14
num_leaves=31
num_cat=0
split_feature=1 7 6 7 1 7 6 1 3 6 4 6 2 2 3 6 6 3 1 6 6 6 6 1 3 6 6 6 1 5
split_gain=7.73921e+10 4.13218e+10 1.00204e+10 7.85365e+09 3.5573e+09 3.38462e+09 2.97475e+09 2.63027e+09 2.62022e+09 2.31428e+09 2.00675e+09 3.00578e+09 1.56024e+09 2.5168e+09 1.27886e+09 1.049e+09 9.79423e+08 8.83303e+08 7.40542e+08 7.09551e+08 6.93379e+08 8.6137e+08 6.73686e+08 6.65974e+08 6.4692e+08 5.97628e+08 7.96276e+08 5.88182e+08 5.69775e+08 5.22101e+08
threshold=2017.5000000000002 2.6500000000000004 37.95000000000001 2.6500000000000004 2014.5000000000002 1.9500000000000002 26.800000000000001 2014.5000000000002 6552.5000000000009 34.70000000000001 3.5000000000000004 34.70000000000001 1.5000000000000002 1.0000000180025095e-35 5102.0000000000009 34.70000000000001 76.40000000000002 6444.0000000000009 2016.5000000000002 60.750000000000007 84.350000000000009 135.00000000000003 43.800000000000004 2010.5000000000002 5351.5000000000009 47.500000000000007 40.100000000000001 28.650000000000002 2009.5000000000002 122.50000000000001
decision_type=2 2 2 2 2 2 2 2 2 2 2 2 2 2 2 2 2 2 2 2 2 2 2 2 2 2 2 2 2 2
left_child=3 5 6 4 23 16 -3 28 15 -9 11 -8 13 20 -4 -7 24 27 25 -17 29 -22 -10 -1 -2 26 -11 -12 -5 -6
right_child=1 2 14 7 12 8 10 9 22 18 17 -13 -14 -15 -16 19 -18 -19 -20 -21 21 -23 -24 -25 -26 -27 -28 -29 -30 -31
leaf_value=-484.00434384103551 -5.2967143586444374 1093.0184279668899 432.55122588219183 -450.5696925770153 -211.56847023633065 376.89305775035513 1143.2843298339844 331.03380584716797 164.14240178047342 -104.36689708016137 799.93785174334494 655.13101470742458 -103.92584060823245 -271.56285251445985 221.90544538303863 173.13716432921368 276.13579668565234 343.88615405273435 56.461706223183491 66.205708020925528 165.52341136932375 -158.67959965297155 20.295875149778716 -305.63614152203883 -137.8041143692987 -115.4604598726545 136.87957697653437 532.05587605420283 -174.95540110370305 -116.28839414037508
leaf_weight=59 197 42 124 22 245 55 40 54 94 66 27 149 513 712 172 808 22 50 235 192 40 42 607 463 173 196 71 85 127 348
leaf_count=59 197 42 124 22 245 55 40 54 94 66 27 149 513 712 172 808 22 50 235 192 40 42 607 463 173 196 71 85 127 348
internal_value=0 192.933 529.861 -165.946 -210.189 84.8584 695.344 -26.9618 114.513 18.2384 647.759 758.444 -178.428 -205.983 310.149 164.299 -47.9811 518.626 -11.4991 152.606 -136.809 -0.531789 39.5849 -325.797 -67.2529 -59.4595 20.6586 596.635 -215.65 -155.654
internal_weight=0 2837 689 3193 2422 2148 393 771 1756 622 351 189 1900 1387 296 1055 392 162 568 1000 675 82 701 522 370 333 137 112 149 593
internal_count=6030 2837 689 3193 2422 2148 393 771 1756 622 351 189 1900 1387 296 1055 392 162 568 1000 675 82 701 522 370 333 137 112 149 593
shrinkage=0.05


Tree=15
num_leaves=31
num_cat=0
split_feature=3 7 0 0 0 3 7 1 0 0 0 1 3 3 1 3 1 3 2 3 7 1 0 0 2 0 0 1 4 5
split_gain=7.12775e+10 3.6532e+10 1.18918e+10 7.97246e+09 4.83162e+09 4.65614e+09 3.94254e+09 3.30056e+09 2.28465e+09 1.92872e+09 1.63875e+09 1.2934e+09 1.28447e+09 1.26289e+09 1.06409e+09 9.42371e+08 8.96018e+08 7.86709e+08 7.78149e+08 7.65687e+08 6.81475e+08 6.31848e+08 6.21722e+08 6.1282e+08 5.55058e+08 5.23505e+08 5.20482e+08 5.16335e+08 4.10579e+08 4.08723e+08
threshold=11481.500000000002 2.6500000000000004 5.5000000000000009 2.5000000000000004 1.5000000000000002 49384.500000000007 2.6500000000000004 2016.5000000000002 18.500000000000004 14.500000000000002 5.5000000000000009 2016.5000000000002 5454.0000000000009 56786.000000000007 2019.5000000000002 17975.000000000004 2019.5000000000002 3250.5000000000005 1.5000000000000002 81517.000000000015 2.1000000000000005 2018.5000000000002 7.5000000000000009 13.500000000000002 1.0000000180025095e-35 13.500000000000002 3.5000000000000004 2010.5000000000002 3.5000000000000004 162.50000000000003
decision_type=2 2 2 2 2 2 2 2 2 2 2 2 2 2 2 2 2 2 2 2 2 2 2 2 2 2 2 2 2 2
left_child=1 4 14 7 17 6 15 13 12 16 -8 -12 22 20 26 25 21 -1 24 -7 -2 -6 -4 -17 -9 -5 -3 -15 -11 -25
right_child=3 2 8 5 9 19 10 18 -10 28 11 -13 -14 27 -16 23 -18 -19 -20 -21 -22 -23 -24 29 -26 -27 -28 -29 -30 -31
leaf_value=53.84799324687738 -244.85948254657615 139.86251517696815 970.4236999511719 5.0322113078087574 -10.783690551916759 -158.81142741134204 17.184901515535408 -113.88965428752817 1090.4062520926341 370.25838170732777 113.20954488773937 376.38835779825848 562.19063155843605 -505.56933656350157 458.47720947265628 -118.69868103195641 233.68336963114768 -57.309472411749312 -65.966858027130371 -317.81658903102289 -131.14130013388876 125.40213803992367 716.36162677143898 38.812895541149999 -224.99047780494166 251.12504825592043 345.74532012939454 -313.4886127786076 196.72848787891621 -191.91442419964335
leaf_weight=268 725 132 28 128 96 345 148 231 35 112 97 90 161 39 46 476 177 392 320 97 161 755 172 116 219 26 40 340 49 23
leaf_count=268 725 132 28 128 96 345 148 231 35 112 97 90 161 39 46 476 177 392 320 97 161 755 172 116 219 26 40 340 49 23
internal_value=0 207.278 541.441 -142.164 96.3115 -56.5701 -1.66602 -207.19 704.704 156.53 141.491 239.873 667.31 -256.87 244.87 -64.0298 131.328 -12.1728 -125.572 -193.706 -224.195 110.039 751.93 -91.7273 -167.959 46.5804 187.742 -333.254 317.445 0.634994
internal_weight=0 2463 614 3581 1849 1546 1104 2035 396 1189 335 187 361 1265 218 769 1028 660 770 442 886 851 200 615 450 154 172 379 161 139
internal_count=6044 2463 614 3581 1849 1546 1104 2035 396 1189 335 187 361 1265 218 769 1028 660 770 442 886 851 200 615 450 154 172 379 161 139
shrinkage=0.05


Tree=16
num_leaves=31
num_cat=0
split_feature=1 7 0 7 0 0 7 0 0 3 5 7 1 3 3 3 1 0 0 1 1 0 0 4 3 0 0 3 0 1
split_gain=6.45882e+10 3.42138e+10 1.1513e+10 6.66686e+09 4.49255e+09 3.21847e+09 2.71899e+09 2.98779e+09 2.70652e+09 2.2478e+09 2.10701e+09 1.85687e+09 1.79829e+09 1.54009e+09 1.22291e+09 1.16269e+09 1.14383e+09 1.02528e+09 1.90588e+09 9.82268e+08 9.7275e+08 9.69115e+08 7.92261e+08 7.78593e+08 6.30483e+08 5.47553e+08 4.85637e+08 4.48911e+08 4.41383e+08 4.4114e+08
threshold=2017.5000000000002 2.6500000000000004 5.5000000000000009 2.6500000000000004 3.5000000000000004 2.5000000000000004 4.2000000000000011 18.500000000000004 5.5000000000000009 16885.000000000004 142.50000000000003 1.9500000000000002 2014.5000000000002 9936.0000000000018 57565.500000000007 6001.0000000000009 2014.5000000000002 16.500000000000004 7.5000000000000009 2015.5000000000002 2019.5000000000002 15.500000000000002 14.500000000000002 1.0000000180025095e-35 59787.500000000007 12.500000000000002 1.0000000180025095e-35 6552.5000000000009 3.5000000000000004 2019.5000000000002
decision_type=2 2 2 2 2 2 2 2 2 2 2 2 2 2 2 2 2 2 2 2 2 2 2 2 2 2 2 2 2 2
left_child=3 4 15 5 11 14 7 17 19 -10 -6 27 -7 20 26 -3 -11 18 -4 -5 -13 24 25 -19 -14 -12 -1 -2 -21 -20
right_child=1 2 6 8 10 12 -8 -9 9 16 22 13 21 -15 -16 -17 -18 23 29 28 -22 -23 -24 -25 -26 -27 -28 -29 -30 -31
leaf_value=-249.05832503886495 -29.069389667845613 321.8367007963119 745.17104052030129 -179.42497746167263 591.04061319986977 -261.85158603688609 1183.867635830966 1041.4959718446476 626.86621017456059 -128.75893889553143 197.4614221356579 68.184917828799001 -88.669340536217135 -47.520034910482359 -318.70987536993056 104.8732221215721 139.66750129657456 614.37552876532834 343.71663086502645 -63.422148739554672 212.45252458829407 73.197036333781924 257.16902305694401 920.02729797363281 -220.20719384166682 90.420979935869923 -183.03270032650087 -144.93298514178306 79.693556504463089 569.67651095920144
leaf_weight=509 228 124 52 181 30 187 22 37 20 53 194 682 613 256 361 123 158 158 108 275 141 82 167 24 107 311 615 132 67 27
leaf_count=509 228 124 52 181 30 187 22 37 20 53 194 682 613 256 361 123 158 158 108 275 141 82 167 24 107 311 615 132 67 27
internal_value=0 175.224 485.617 -152.437 77.366 -192.106 642.486 613.15 -22.2772 120.262 181.064 26.7782 -122.225 59.5855 -238.647 213.794 72.2429 570.199 487.976 -85.2343 92.9015 -89.6687 162.761 654.681 -108.217 131.541 -212.932 -71.5527 -35.3849 388.909
internal_weight=0 2816 675 3228 2141 2474 428 406 754 231 702 1439 989 1079 1485 247 211 369 187 523 823 802 672 182 720 505 1124 360 342 135
internal_count=6044 2816 675 3228 2141 2474 428 406 754 231 702 1439 989 1079 1485 247 211 369 187 523 823 802 672 182 720 505 1124 360 342 135
shrinkage=0.05


Tree=17
num_leaves=31
num_cat=0
split_feature=1 7 7 0 1 0 0 3 0 0 0 1 6 6 1 0 6 1 3 0 0 0 1 1 3 6 0 6 6 3
split_gain=5.85699e+10 3.02525e+10 7.83369e+09 6.58797e+09 4.02151e+09 3.94155e+09 3.66625e+09 3.309e+09 2.61927e+09 2.09443e+09 1.28432e+09 1.15112e+09 1.15051e+09 9.89827e+08 9.49116e+08 9.31492e+08 8.47629e+08 7.97008e+08 7.81953e+08 7.72707e+08 6.52981e+08 1.51368e+09 6.51367e+08 6.09534e+08 5.94948e+08 5.87195e+08 5.73719e+08 5.08614e+08 5.06552e+08 4.7867e+08
threshold=2018.5000000000002 2.6500000000000004 2.6500000000000004 5.5000000000000009 2015.5000000000002 5.5000000000000009 1.5000000000000002 22469.500000000004 2.5000000000000004 18.500000000000004 14.500000000000002 2015.5000000000002 26.800000000000001 36.45000000000001 2014.5000000000002 13.500000000000002 64.950000000000017 2010.5000000000002 8202.0000000000018 14.500000000000002 7.5000000000000009 16.500000000000004 2019.5000000000002 2019.5000000000002 24508.500000000004 45.20000000000001 3.5000000000000004 41.20000000000001 51.850000000000001 18289.000000000004
decision_type=2 2 2 2 2 2 2 2 2 2 2 2 2 2 2 2 2 2 2 2 2 2 2 2 2 2 2 2 2 2
left_child=2 6 4 23 17 11 13 18 16 12 22 -4 -5 -2 -9 24 -6 -1 -7 -19 27 -22 -8 -3 -10 -16 -13 -14 -15 -17
right_child=1 3 5 9 8 7 10 14 15 -11 -12 26 20 28 25 29 -18 19 -20 -21 21 -23 -24 -25 -26 -27 -28 -29 -30 -31
leaf_value=-435.31489390980119 246.8234566353463 208.13369714212783 -170.4537286568742 874.52729566169512 -133.83135086628374 709.68802070731215 107.56947942701447 -122.32099141804677 -25.70214283209053 989.42116765202707 278.71768418797905 -48.589757422436257 910.8459339488636 21.625226448200369 270.26546731502452 218.34018713814874 -221.76768599755866 -255.9981343949828 348.18626400874211 -106.83253716643976 390.39585145722839 632.92544800582209 213.09851536292814 419.69734337848172 -122.90136479030956 56.66346717114542 99.186411908777757 584.19285325270437 -72.477814912516621 8.3864009763583667
leaf_weight=55 37 131 181 33 617 21 841 53 278 37 159 330 22 324 47 35 493 761 52 98 109 157 177 46 363 102 82 26 256 121
leaf_count=55 37 131 181 33 617 21 841 53 278 37 159 330 22 324 47 35 493 761 52 98 109 157 177 46 363 102 82 26 256 121
internal_value=0 195.021 -124.147 515.49 -164.563 7.20601 94.8078 163.666 -123.234 631.818 146.559 -65.3515 593.687 -3.91455 59.4017 -54.08 -172.888 -250.795 452.18 -238.98 564.172 533.543 125.918 263.116 -80.7463 124.041 -19.178 733.909 -19.9099 55.4914
internal_weight=0 2355 3689 561 2821 868 1794 275 1907 384 1177 593 347 617 202 797 1110 914 73 859 314 266 1018 177 641 149 412 48 580 156
internal_count=6044 2355 3689 561 2821 868 1794 275 1907 384 1177 593 347 617 202 797 1110 914 73 859 314 266 1018 177 641 149 412 48 580 156
shrinkage=0.05


Tree=18
num_leaves=31
num_cat=0
split_feature=3 7 0 1 0 0 0 7 1 0 1 0 0 3 5 1 7 0 1 0 0 1 3 0 0 3 3 0 0 3
split_gain=5.30285e+10 2.6708e+10 8.14074e+09 6.46517e+09 4.60972e+09 3.43417e+09 2.96767e+09 2.93944e+09 1.72423e+09 1.60313e+09 1.39864e+09 1.25089e+09 1.24754e+09 1.01565e+09 8.85453e+08 7.50101e+08 7.26353e+08 6.36698e+08 6.16708e+08 6.15796e+08 6.10434e+08 5.98448e+08 5.62214e+08 5.41524e+08 5.12311e+08 4.55401e+08 4.0457e+08 4.02873e+08 8.4065e+08 4.02512e+08
threshold=10571.500000000002 2.6500000000000004 5.5000000000000009 2016.5000000000002 3.5000000000000004 1.5000000000000002 4.5000000000000009 2.6500000000000004 2014.5000000000002 18.500000000000004 2013.5000000000002 14.500000000000002 16.500000000000004 6112.0000000000009 152.50000000000003 2019.5000000000002 1.9500000000000002 12.500000000000002 2019.5000000000002 1.0000000180025095e-35 16.500000000000004 2019.5000000000002 20763.500000000004 7.5000000000000009 3.5000000000000004 25923.500000000004 68583.500000000015 16.500000000000004 14.500000000000002 36.500000000000007
decision_type=2 2 2 2 2 2 2 2 2 2 2 2 2 2 2 2 2 2 2 2 2 2 2 2 2 2 2 2 2 2
left_child=1 5 15 6 16 18 10 22 -8 13 -2 21 17 23 19 24 -5 -10 -1 -12 -9 -7 -6 -4 -3 -18 -21 28 -25 -23
right_child=3 2 9 4 7 11 8 20 12 -11 14 -13 -14 -15 -16 -17 25 -19 -20 26 -22 29 -24 27 -26 -27 -28 -29 -30 -31
leaf_value=-24.856539409874131 -307.17578622976367 122.14410340093798 836.31220230594761 -184.60197232657788 84.479663799790785 101.00076462835879 -203.33502557823456 192.33985798236023 105.21160570780438 934.34009207589281 -256.89750368733053 271.86484738257622 154.97067629491744 463.72192184324189 -100.16275400295854 398.71247525422473 -47.31767295528708 -94.697618944726443 117.04735518894839 -161.55316337669171 398.51023880807975 102.25409388691187 -46.508170147891185 671.9196987575956 341.2303852754481 -128.35143049831458 -253.08524895745356 683.10024762834826 377.49956270456317 259.18807966856832
leaf_weight=548 277 124 31 204 136 814 166 97 48 35 363 155 88 123 256 46 458 234 89 655 57 64 206 54 34 279 148 98 44 113
leaf_count=548 277 124 31 204 136 814 166 97 48 35 363 155 88 123 256 46 458 234 89 655 57 64 206 54 34 279 148 98 44 113
internal_value=0 184.474 476.386 -118.83 -36.0889 88.0438 -172.028 87.2593 -69.4502 611.696 -204.389 139.779 -9.38288 579.431 -184.367 221.022 -101.106 -60.6705 -5.03009 -202.854 268.65 119.119 5.58056 642.128 169.289 -77.994 -178.423 611.416 539.731 202.444
internal_weight=0 2372 589 3672 1437 1783 2235 496 536 385 1699 1146 370 350 1422 204 941 282 637 1166 154 991 342 227 158 737 803 196 98 177
internal_count=6044 2372 589 3672 1437 1783 2235 496 536 385 1699 1146 370 350 1422 204 941 282 637 1166 154 991 342 227 158 737 803 196 98 177
shrinkage=0.05


Tree=19
num_leaves=31
num_cat=0
split_feature=1 6 0 0 3 6 5 0 3 0 6 0 6 5 6 4 6 3 0 6 5 0 6 1 0 3 0 1 2 6
split_gain=4.80078e+10 2.09149e+10 6.32862e+09 4.97335e+09 3.69802e+09 4.29076e+09 3.27721e+09 2.74266e+09 2.27427e+09 2.01726e+09 1.69363e+09 1.32501e+09 1.13588e+09 1.13179e+09 9.80704e+08 2.02724e+09 1.84398e+09 9.7713e+08 8.80865e+08 8.36545e+08 1.55165e+09 8.05959e+08 8.27484e+08 7.81702e+08 6.52479e+08 5.99017e+08 5.63529e+08 5.32887e+08 5.30632e+08 4.55712e+08
threshold=2018.5000000000002 37.95000000000001 2.5000000000000004 1.5000000000000002 49384.500000000007 36.45000000000001 142.50000000000003 17.500000000000004 48026.000000000007 16.500000000000004 26.800000000000001 16.500000000000004 32.650000000000006 127.50000000000001 54.850000000000001 3.5000000000000004 47.500000000000007 14462.000000000002 12.500000000000002 329.55000000000007 152.50000000000003 12.500000000000002 33.800000000000004 2016.5000000000002 2.5000000000000004 81517.000000000015 17.500000000000004 2011.5000000000002 1.5000000000000002 43.150000000000006
decision_type=2 2 2 2 2 2 2 2 2 2 2 2 2 2 2 2 2 2 2 2 2 2 2 2 2 2 2 2 2 2
left_child=2 7 8 -3 5 17 -5 10 13 23 -2 21 -9 -1 15 16 18 -4 -8 20 -11 22 -12 -7 -16 -6 -22 -10 -15 -17
right_child=1 3 4 6 25 9 14 12 27 19 11 -13 -14 28 24 29 -18 -19 -20 -21 26 -23 -24 -25 -26 -27 -28 -29 -30 -31
leaf_value=-186.81155094876095 775.72188445060488 -16.741784251963974 647.82398965018137 736.30764058430987 -130.68511902850608 -90.97067570613936 556.15692966267216 994.70825700431033 -410.74670605468748 453.54111853311224 574.53898235818622 519.90354022831878 596.78894484499676 -134.60977976317079 -77.798942849595676 144.06408318413628 193.80503602981568 253.99667045956568 239.54401814052036 -114.05881745711618 183.29743948849764 218.23757914417197 311.80963958030526 -0.3993248963694544 105.44691854973814 -271.32393505843646 -106.87015166106049 -239.91956846909298 -54.485338359040185 36.801637039964014
leaf_weight=659 31 602 21 24 345 461 59 29 50 43 46 129 47 468 59 189 430 63 35 23 44 106 86 493 275 97 27 525 370 208
leaf_count=659 31 602 21 24 345 461 59 29 50 43 46 129 47 468 59 189 430 63 35 23 44 106 86 493 275 97 27 525 370 208
internal_value=0 176.563 -112.398 101.763 -38.265 8.11085 157.541 473.393 -170.251 -18.4013 420.836 390.859 748.627 -137.786 146.473 173.09 237.659 352.454 438.269 161.011 216.508 320.914 403.367 -44.166 73.0771 -161.549 72.952 -254.774 -99.2326 87.8661
internal_weight=0 2355 3689 1881 1617 1175 1279 474 2072 1091 398 367 76 1497 1255 921 524 84 94 137 114 238 132 954 334 442 71 575 838 397
internal_count=6044 2355 3689 1881 1617 1175 1279 474 2072 1091 398 367 76 1497 1255 921 524 84 94 137 114 238 132 954 334 442 71 575 838 397
shrinkage=0.05


end of trees

feature_importances:
model=160
year=130
mpg=115
mileage=87
engineSize=52
fuelType=22
tax=19
transmission=15

parameters:
[boosting: gbdt]
[objective: regression]
[metric: l2,l1]
[tree_learner: serial]
[device_type: cpu]
[data: ]
[valid: ]
[num_iterations: 20]
[learning_rate: 0.05]
[num_leaves: 31]
[num_threads: 0]
[deterministic: 0]
[force_col_wise: 0]
[force_row_wise: 0]
[histogram_pool_size: -1]
[max_depth: -1]
[min_data_in_leaf: 20]
[min_sum_hessian_in_leaf: 0.001]
[bagging_fraction: 0.8]
[pos_bagging_fraction: 1]
[neg_bagging_fraction: 1]
[bagging_freq: 5]
[bagging_seed: 3]
[feature_fraction: 0.9]
[feature_fraction_bynode: 1]
[feature_fraction_seed: 2]
[extra_trees: 0]
[extra_seed: 6]
[early_stopping_round: 5]
[first_metric_only: 0]
[max_delta_step: 0]
[lambda_l1: 0]
[lambda_l2: 0]
[min_gain_to_split: 0]
[drop_rate: 0.1]
[max_drop: 50]
[skip_drop: 0.5]
[xgboost_dart_mode: 0]
[uniform_drop: 0]
[drop_seed: 4]
[top_rate: 0.2]
[other_rate: 0.1]
[min_data_per_group: 100]
[max_cat_threshold: 32]
[cat_l2: 10]
[cat_smooth: 10]
[max_cat_to_onehot: 4]
[top_k: 20]
[monotone_constraints: ]
[monotone_constraints_method: basic]
[monotone_penalty: 0]
[feature_contri: ]
[forcedsplits_filename: ]
[refit_decay_rate: 0.9]
[cegb_tradeoff: 1]
[cegb_penalty_split: 0]
[cegb_penalty_feature_lazy: ]
[cegb_penalty_feature_coupled: ]
[path_smooth: 0]
[interaction_constraints: ]
[verbosity: 0]
[saved_feature_importance_type: 0]
[max_bin: 255]
[max_bin_by_feature: ]
[min_data_in_bin: 3]
[bin_construct_sample_cnt: 200000]
[data_random_seed: 1]
[is_enable_sparse: 1]
[enable_bundle: 1]
[use_missing: 1]
[zero_as_missing: 0]
[feature_pre_filter: 1]
[pre_partition: 0]
[two_round: 0]
[header: 0]
[label_column: ]
[weight_column: ]
[group_column: ]
[ignore_column: ]
[categorical_feature: ]
[forcedbins_filename: ]
[objective_seed: 5]
[num_class: 1]
[is_unbalance: 0]
[scale_pos_weight: 1]
[sigmoid: 1]
[boost_from_average: 1]
[reg_sqrt: 0]
[alpha: 0.9]
[fair_c: 1]
[poisson_max_delta_step: 0.7]
[tweedie_variance_power: 1.5]
[lambdarank_truncation_level: 30]
[lambdarank_norm: 1]
[label_gain: ]
[eval_at: ]
[multi_error_top_k: 1]
[auc_mu_weights: ]
[num_machines: 1]
[local_listen_port: 12400]
[time_out: 120]
[machine_list_filename: ]
[machines: ]
[gpu_platform_id: -1]
[gpu_device_id: -1]
[gpu_use_dp: 0]
[num_gpu: 1]

end of parameters

pandas_categorical:[]
